// Auto-generated Fisher projection weights
// Derived from data.csv + robust-scaled pre-Fisher features
// Feature space: first 153 scaled features (indices 0..152)

#ifndef FISHER_WEIGHTS_H
#define FISHER_WEIGHTS_H

#define FISHER_PAIR_COUNT 4
#define FISHER_BASE_FEATURE_COUNT 153

static const float FISHER_WEIGHTS[FISHER_PAIR_COUNT][FISHER_BASE_FEATURE_COUNT] = {
    { // [0] coffee_vs_dtea
        0.000000000f,
        0.000058398f,
        0.081963770f,
        0.075728332f,
        0.004420584f,
        -0.002374082f,
        0.018191536f,
        0.016124461f,
        0.005615748f,
        -0.007938561f,
        0.000000000f,
        0.023602738f,
        0.135151327f,
        0.123090917f,
        0.113435200f,
        0.015303827f,
        0.048771503f,
        0.069827325f,
        0.081793212f,
        0.067274401f,
        0.152061514f,
        0.152254215f,
        0.146944079f,
        0.147559520f,
        0.066035848f,
        0.141964287f,
        0.053111518f,
        0.100903431f,
        0.078008868f,
        0.068052543f,
        0.154414314f,
        0.164413431f,
        0.141727081f,
        0.149929525f,
        0.076818159f,
        0.145725827f,
        0.072672713f,
        0.117722155f,
        0.105675003f,
        0.090867865f,
        0.000058398f,
        0.094774939f,
        0.059591806f,
        -0.022458023f,
        -0.039090528f,
        0.023590395f,
        0.004796017f,
        -0.052573220f,
        -0.057983607f,
        0.023602738f,
        0.071106251f,
        0.082609683f,
        0.064102919f,
        -0.023736393f,
        0.095606911f,
        0.002204166f,
        0.043268885f,
        -0.051082826f,
        -0.004213850f,
        0.065768481f,
        -0.017089581f,
        -0.001086348f,
        0.012386639f,
        0.068506562f,
        -0.028585806f,
        0.038748815f,
        -0.011335166f,
        0.069740483f,
        -0.003527409f,
        0.069926444f,
        0.142003313f,
        -0.159665418f,
        -0.051515639f,
        0.077421179f,
        0.027635102f,
        -0.110738808f,
        0.144309597f,
        0.057621079f,
        -0.134851075f,
        0.140204601f,
        0.049082026f,
        -0.130028967f,
        0.000000000f,
        -0.035972284f,
        -0.070921032f,
        -0.089246428f,
        -0.048597198f,
        -0.066813304f,
        -0.063848024f,
        -0.143940890f,
        -0.131432891f,
        -0.120559677f,
        0.000000000f,
        -0.037335901f,
        -0.071572093f,
        -0.090186345f,
        -0.047470260f,
        0.170978936f,
        -0.154393698f,
        0.162041367f,
        0.095595584f,
        0.092552478f,
        0.159629260f,
        0.138391540f,
        0.011942945f,
        0.139348516f,
        0.069202962f,
        -0.059006904f,
        -0.008821388f,
        0.019511492f,
        -0.029833930f,
        0.018145445f,
        -0.052066713f,
        0.008077959f,
        -0.045926107f,
        -0.001866980f,
        -0.025686741f,
        -0.019606355f,
        -0.045957960f,
        -0.024312183f,
        -0.036978644f,
        0.050844921f,
        -0.041758605f,
        -0.011792766f,
        -0.011329497f,
        0.027079895f,
        -0.026451724f,
        -0.027428444f,
        -0.033231046f,
        0.054072859f,
        -0.054057251f,
        0.024896321f,
        -0.051295164f,
        0.009199511f,
        0.008128970f,
        -0.056398100f,
        -0.139158910f,
        0.005964128f,
        0.004540693f,
        -0.061982996f,
        -0.026718345f,
        -0.091135493f,
        -0.144653080f,
        0.016018717f,
        0.048438744f,
        -0.039946402f,
        -0.047748491f,
        0.003635220f,
        0.152822650f,
        0.063346004f,
        -0.017754651f,
        -0.124638338f,
        -0.053558692f
    },
    { // [1] dtea_vs_tea
        0.000000000f,
        0.144959145f,
        0.177769581f,
        0.172715089f,
        0.056765329f,
        0.073100579f,
        0.121722583f,
        0.128638111f,
        0.111598901f,
        0.104696439f,
        0.000000000f,
        0.128312116f,
        0.175915633f,
        0.171470214f,
        0.164535248f,
        0.085195784f,
        0.098838217f,
        0.143372137f,
        0.140710167f,
        0.133618144f,
        0.042990334f,
        0.024929706f,
        0.061166194f,
        0.066603990f,
        0.029830952f,
        0.006151709f,
        -0.008211558f,
        0.039144087f,
        0.031162708f,
        0.034714276f,
        0.091945172f,
        0.077263086f,
        0.102274561f,
        0.092437606f,
        0.037237644f,
        0.043509307f,
        0.005976727f,
        0.061597793f,
        0.049226490f,
        0.051432405f,
        0.144959145f,
        0.062990817f,
        0.150635542f,
        0.008897450f,
        0.138235029f,
        0.007987823f,
        0.104888097f,
        -0.013196342f,
        0.036516697f,
        0.128312116f,
        -0.003663524f,
        0.126551122f,
        0.102714044f,
        0.048079696f,
        0.065807221f,
        0.007040025f,
        0.001396992f,
        0.042398331f,
        0.104409161f,
        0.126944194f,
        -0.014233994f,
        -0.023926308f,
        0.110491628f,
        0.138836461f,
        0.163487320f,
        -0.014670120f,
        0.099410854f,
        0.116056554f,
        0.104531334f,
        0.128543256f,
        0.040340946f,
        -0.041410014f,
        0.021479666f,
        -0.006237390f,
        -0.016555572f,
        0.235369224f,
        0.091312127f,
        0.063912958f,
        0.078759914f,
        0.093847362f,
        0.048922171f,
        0.055524902f,
        0.000000000f,
        -0.061138722f,
        0.036226245f,
        0.034968077f,
        -0.002468719f,
        -0.061503485f,
        -0.039153463f,
        -0.012293699f,
        -0.020974911f,
        -0.011582151f,
        0.000000000f,
        -0.059671134f,
        0.038251209f,
        0.037102935f,
        -0.002355118f,
        0.080597964f,
        -0.030900969f,
        0.066735539f,
        0.144935935f,
        0.137124669f,
        0.127323273f,
        0.050957706f,
        0.113407655f,
        0.033131241f,
        0.113661338f,
        -0.067796860f,
        0.067535078f,
        0.027790646f,
        -0.007616177f,
        -0.021663644f,
        -0.019199941f,
        0.038060591f,
        -0.015178595f,
        0.015492843f,
        -0.005718027f,
        0.078580897f,
        -0.034646881f,
        0.006358890f,
        -0.050099799f,
        -0.050831599f,
        0.050308692f,
        0.040706429f,
        0.005213552f,
        -0.062503692f,
        0.049571660f,
        -0.047989901f,
        0.038562088f,
        -0.032636905f,
        -0.012706799f,
        -0.008124440f,
        0.012913048f,
        0.048559084f,
        0.065722582f,
        0.033112750f,
        -0.017917924f,
        -0.117046296f,
        -0.072960780f,
        -0.133950964f,
        -0.033984204f,
        0.016683050f,
        -0.015804847f,
        -0.003842729f,
        -0.014358762f,
        -0.057266032f,
        -0.054567893f,
        -0.069938520f,
        0.077510098f,
        0.161321543f,
        -0.073938732f,
        0.011341866f,
        -0.027123644f
    },
    { // [2] dcoffee_vs_coffee
        0.000000000f,
        -0.073485455f,
        -0.078430859f,
        -0.063917914f,
        -0.011803117f,
        -0.018793828f,
        -0.049392674f,
        -0.076971168f,
        -0.063029213f,
        -0.047979988f,
        0.000000000f,
        0.046910407f,
        0.059126674f,
        0.025450229f,
        0.013347706f,
        0.009211206f,
        -0.033634098f,
        -0.013287679f,
        -0.026890955f,
        -0.013361718f,
        0.052580176f,
        -0.000619673f,
        -0.008668534f,
        -0.004991097f,
        0.017779202f,
        0.008503604f,
        0.051319831f,
        -0.025153361f,
        0.017386215f,
        0.006318852f,
        -0.002476239f,
        -0.053981383f,
        -0.060912010f,
        -0.041904607f,
        -0.010996369f,
        -0.021696618f,
        0.023992520f,
        -0.054446232f,
        -0.019070782f,
        -0.019478544f,
        -0.073485455f,
        -0.026054525f,
        -0.037949465f,
        0.013188193f,
        -0.059770777f,
        -0.028902707f,
        -0.132631442f,
        0.046117086f,
        0.033062512f,
        0.046910407f,
        -0.006510384f,
        -0.036040863f,
        -0.018965884f,
        0.005501131f,
        -0.131249186f,
        0.041451513f,
        -0.045050276f,
        0.064059318f,
        -0.055241715f,
        -0.031900207f,
        -0.023829397f,
        -0.016238999f,
        -0.049443124f,
        -0.006506184f,
        -0.045016830f,
        -0.006314307f,
        -0.037369811f,
        -0.013807066f,
        -0.063239313f,
        -0.045543617f,
        0.018637655f,
        -0.021455313f,
        0.055115730f,
        0.050473870f,
        0.058369864f,
        -0.148520263f,
        -0.152725580f,
        -0.197275601f,
        -0.045830828f,
        -0.155043236f,
        -0.204521813f,
        -0.038344058f,
        0.000000000f,
        -0.123507653f,
        -0.204966538f,
        -0.178211275f,
        -0.027874776f,
        -0.081585736f,
        0.008780677f,
        -0.116011877f,
        -0.050551498f,
        -0.047601717f,
        0.000000000f,
        -0.125184059f,
        -0.202503125f,
        -0.177550848f,
        -0.028555974f,
        0.026055527f,
        -0.024471261f,
        -0.046510472f,
        -0.016858306f,
        -0.036777417f,
        0.027913879f,
        -0.012786312f,
        -0.123114920f,
        -0.016584683f,
        0.004598658f,
        -0.125522214f,
        -0.019670005f,
        0.020964066f,
        0.023566896f,
        -0.011119127f,
        0.070561606f,
        -0.084838567f,
        0.049241221f,
        -0.017945610f,
        -0.126403186f,
        -0.027483076f,
        0.034222644f,
        0.023259379f,
        0.025701357f,
        -0.067029109f,
        0.026183798f,
        0.012040999f,
        0.004484208f,
        -0.032047538f,
        -0.011008180f,
        0.023035217f,
        0.008881791f,
        -0.052449167f,
        0.117191656f,
        -0.075522465f,
        0.059538930f,
        -0.061740845f,
        -0.020289452f,
        0.000224098f,
        -0.033365643f,
        0.086969294f,
        0.085221344f,
        0.073216667f,
        0.031395454f,
        -0.191342135f,
        -0.073458158f,
        0.022896778f,
        0.070215568f,
        0.263995494f,
        0.241255128f,
        0.246938953f,
        -0.126119235f,
        0.036891371f,
        0.237925577f,
        0.166237279f,
        0.154675139f
    },
    { // [3] dtea_vs_dcoffee
        0.000000000f,
        0.048782839f,
        -0.004713484f,
        -0.010111738f,
        0.004147165f,
        0.014147956f,
        0.019468942f,
        0.038547620f,
        0.036714509f,
        0.036597448f,
        0.000000000f,
        -0.046993540f,
        -0.124274922f,
        -0.096856288f,
        -0.080579221f,
        -0.018118157f,
        -0.015788517f,
        -0.036340384f,
        -0.036461711f,
        -0.033939343f,
        -0.145128070f,
        -0.123629231f,
        -0.106895286f,
        -0.108536362f,
        -0.061917317f,
        -0.116311607f,
        -0.076128491f,
        -0.059272003f,
        -0.067755239f,
        -0.056164072f,
        -0.117743874f,
        -0.103442443f,
        -0.073969832f,
        -0.088504467f,
        -0.053033127f,
        -0.101261339f,
        -0.073874428f,
        -0.058917786f,
        -0.072553661f,
        -0.060537256f,
        0.048782839f,
        -0.068768461f,
        -0.017597806f,
        0.010202616f,
        0.072089857f,
        -0.001181093f,
        0.083933744f,
        0.014444444f,
        0.021582146f,
        -0.046993540f,
        -0.053242597f,
        -0.037450404f,
        -0.030956103f,
        0.016230868f,
        0.021082058f,
        -0.029211439f,
        -0.003446210f,
        -0.002577010f,
        0.038672740f,
        -0.023043810f,
        0.031099905f,
        0.011940360f,
        0.022976634f,
        -0.042167262f,
        0.053678987f,
        -0.029030776f,
        0.032214218f,
        -0.037350935f,
        0.043419129f,
        -0.017438450f,
        -0.114692588f,
        0.143963276f,
        -0.004862897f,
        -0.097076682f,
        -0.057901376f,
        0.198023240f,
        -0.043873464f,
        0.087070742f,
        0.160221694f,
        -0.037979853f,
        0.095574927f,
        0.145973230f,
        0.000000000f,
        0.110191500f,
        0.190290383f,
        0.189162847f,
        0.060240688f,
        0.107623003f,
        0.049411778f,
        0.181376559f,
        0.145741506f,
        0.126917629f,
        0.000000000f,
        0.111034829f,
        0.186703304f,
        0.186993991f,
        0.059599340f,
        -0.148982541f,
        0.139708803f,
        -0.106170492f,
        -0.050922892f,
        -0.042973833f,
        -0.129989851f,
        -0.100507741f,
        0.071782457f,
        -0.100211192f,
        -0.046516669f,
        0.121590167f,
        0.020713256f,
        -0.033928879f,
        0.009420628f,
        -0.007463762f,
        -0.002992233f,
        0.049839332f,
        0.002565641f,
        0.017199810f,
        0.103433592f,
        0.024179615f,
        0.028180662f,
        -0.003737391f,
        0.027198046f,
        -0.023689927f,
        0.008673489f,
        0.002473524f,
        0.003737433f,
        0.002793722f,
        0.027838038f,
        0.008895801f,
        0.022410656f,
        -0.011463402f,
        -0.041100712f,
        0.033375813f,
        0.001977629f,
        0.035030759f,
        0.006842054f,
        0.045158950f,
        0.137376260f,
        -0.061657520f,
        -0.062561512f,
        -0.004127014f,
        0.001086547f,
        0.185329307f,
        0.163417939f,
        -0.029315284f,
        -0.091289536f,
        -0.144322541f,
        -0.123534549f,
        -0.171253079f,
        -0.051483614f,
        -0.071313682f,
        -0.148039801f,
        0.024387595f,
        -0.058668812f
    }
};

#endif // FISHER_WEIGHTS_H
